%YAML:1.0
CIA_Neuron: !!opencv-ml-ann-mlp
   layer_sizes: !!opencv-matrix
      rows: 1
      cols: 4
      dt: i
      data: [ 3, 3, 5, 1 ]
   activation_function: SIGMOID_SYM
   f_param1: 0.6666666666666666
   f_param2: 1.7159000000000000
   min_val: -0.9500000000000000
   max_val: 0.9500000000000000
   min_val1: -0.9800000000000000
   max_val1: 0.9800000000000000
   training_params:
      train_method: BACKPROP
      dw_scale: 0.1000000000000000
      moment_scale: 0.
      term_criteria: { epsilon:1.0000000000000000e-003, iterations:100 }
   input_scale: [ 0.0190664018226044, -2.6621351173176078,
       0.0190111554211065, -2.4762091052007293, 0.0258022691497481,
       -3.7409917060066249 ]
   output_scale: [ 1.0526315789473684, 0. ]
   inv_output_scale: [ 0.9500000000000000, 0. ]
   weights:
      - [ 0.6751292854284637, -0.2195091945580748, 0.1699363162614263,
          1.3977855454233539, 0.7199452545996751, 0.0894816765400622,
          -0.4876690539335847, 0.9446029452162937, -0.5285504065424943,
          0.5458190684223638, -0.3923672356985186, 0.5408983357560527 ]
      - [ 0.8429503169814222, -10.1373920008363690, 19.9294924057220870,
          0.3577733060752579, 0.7023360662479724, -0.5846484145351435,
          -0.2815835521903085, -9.6680190021980703, 0.1483811332155004,
          -0.2132321287168552, 0.4653678980898875, 11.3267784143903680,
          -9.2890484429074487, 0.3925270332827146, 0.6924452925894047,
          -0.6051325052370178, 3.4510698788598870, 1.5908473522470441,
          0.1283967212415994, -0.0947879680493548 ]
      - [ -0.5979030590004356, 1.1304060453568174, 0.5884604496501632,
          -0.3738737551149955, 0.6669264658257025, -1.0922765926723974 ]
